<?xml version="1.0"?>
<opencv_storage>
<cascade>
  <stageType>BOOST</stageType>
  <featureType>HAAR</featureType>
  <height>50</height>
  <width>50</width>
  <stageParams>
    <boostType>GAB</boostType>
    <minHitRate>9.9900001287460327e-01</minHitRate>
    <maxFalseAlarm>5.0000000000000000e-01</maxFalseAlarm>
    <weightTrimRate>9.4999999999999996e-01</weightTrimRate>
    <maxDepth>1</maxDepth>
    <maxWeakCount>100</maxWeakCount></stageParams>
  <featureParams>
    <maxCatCount>0</maxCatCount>
    <featSize>1</featSize>
    <mode>ALL</mode></featureParams>
  <stageNum>20</stageNum>
  <stages>
    <!-- stage 0 -->
    <_>
      <maxWeakCount>3</maxWeakCount>
      <stageThreshold>-1.5116305351257324e+00</stageThreshold>
      <weakClassifiers>
        <_>
          <internalNodes>
            0 -1 22 -2.6217084378004074e-02</internalNodes>
          <leafValues>
            4.6511629223823547e-01 -9.5940959453582764e-01</leafValues></_>
        <_>
          <internalNodes>
            0 -1 96 -1.5663072466850281e-02</internalNodes>
          <leafValues>
            4.3301987648010254e-01 -8.8177371025085449e-01</leafValues></_>
        <_>
          <internalNodes>
            0 -1 56 6.0893064364790916e-03</internalNodes>
          <leafValues>
            -8.1645202636718750e-01 3.2955273985862732e-01</leafValues></_></weakClassifiers></_>
    <!-- stage 1 -->
    <_>
      <maxWeakCount>4</maxWeakCount>
      <stageThreshold>-1.3468681573867798e+00</stageThreshold>
      <weakClassifiers>
        <_>
          <internalNodes>
            0 -1 37 -3.2884055376052856e-01</internalNodes>
          <leafValues>
            7.4842768907546997e-01 -8.0967241525650024e-01</leafValues></_>
        <_>
          <internalNodes>
            0 -1 6 -3.8656339049339294e-02</internalNodes>
          <leafValues>
            4.7230085730552673e-01 -7.8071373701095581e-01</leafValues></_>
        <_>
          <internalNodes>
            0 -1 137 -6.8769864737987518e-03</internalNodes>
          <leafValues>
            7.2884541749954224e-01 -4.2824563384056091e-01</leafValues></_>
        <_>
          <internalNodes>
            0 -1 116 2.7382705360651016e-02</internalNodes>
          <leafValues>
            -4.8532745242118835e-01 6.8701082468032837e-01</leafValues></_></weakClassifiers></_>
    <!-- stage 2 -->
    <_>
      <maxWeakCount>5</maxWeakCount>
      <stageThreshold>-1.4646646976470947e+00</stageThreshold>
      <weakClassifiers>
        <_>
          <internalNodes>
            0 -1 73 -1.4494553208351135e-01</internalNodes>
          <leafValues>
            9.4326239824295044e-01 -8.0880123376846313e-01</leafValues></_>
        <_>
          <internalNodes>
            0 -1 114 -1.0978279262781143e-01</internalNodes>
          <leafValues>
            5.5257147550582886e-01 -5.4820185899734497e-01</leafValues></_>
        <_>
          <internalNodes>
            0 -1 15 -2.6129159959964454e-04</internalNodes>
          <leafValues>
            -8.9135944843292236e-01 2.5172734260559082e-01</leafValues></_>
        <_>
          <internalNodes>
            0 -1 12 -1.7795946449041367e-02</internalNodes>
          <leafValues>
            4.7186145186424255e-01 -5.1739597320556641e-01</leafValues></_>
        <_>
          <internalNodes>
            0 -1 35 5.5649623391218483e-05</internalNodes>
          <leafValues>
            3.4709459543228149e-01 -8.3125042915344238e-01</leafValues></_></weakClassifiers></_>
    <!-- stage 3 -->
    <_>
      <maxWeakCount>4</maxWeakCount>
      <stageThreshold>-1.0155491828918457e+00</stageThreshold>
      <weakClassifiers>
        <_>
          <internalNodes>
            0 -1 43 -1.3869325816631317e-01</internalNodes>
          <leafValues>
            7.5324672460556030e-01 -7.9876160621643066e-01</leafValues></_>
        <_>
          <internalNodes>
            0 -1 88 -4.5456405729055405e-02</internalNodes>
          <leafValues>
            3.6783453822135925e-01 -5.4635590314865112e-01</leafValues></_>
        <_>
          <internalNodes>
            0 -1 40 -1.6986265836749226e-04</internalNodes>
          <leafValues>
            -6.9475680589675903e-01 2.8054431080818176e-01</leafValues></_>
        <_>
          <internalNodes>
            0 -1 17 1.2833531945943832e-04</internalNodes>
          <leafValues>
            2.2373913228511810e-01 -8.6516642570495605e-01</leafValues></_></weakClassifiers></_>
    <!-- stage 4 -->
    <_>
      <maxWeakCount>6</maxWeakCount>
      <stageThreshold>-1.3111752271652222e+00</stageThreshold>
      <weakClassifiers>
        <_>
          <internalNodes>
            0 -1 66 -2.5638711452484131e-01</internalNodes>
          <leafValues>
            6.9924813508987427e-01 -7.3913043737411499e-01</leafValues></_>
        <_>
          <internalNodes>
            0 -1 31 -4.6192854642868042e-02</internalNodes>
          <leafValues>
            3.3909586071968079e-01 -6.2011432647705078e-01</leafValues></_>
        <_>
          <internalNodes>
            0 -1 16 -5.7306628150399774e-05</internalNodes>
          <leafValues>
            -7.8208738565444946e-01 2.5690042972564697e-01</leafValues></_>
        <_>
          <internalNodes>
            0 -1 121 2.4143275804817677e-03</internalNodes>
          <leafValues>
            -4.5875757932662964e-01 4.9545994400978088e-01</leafValues></_>
        <_>
          <internalNodes>
            0 -1 33 -3.4229061566293240e-04</internalNodes>
          <leafValues>
            -9.1013824939727783e-01 2.7227938175201416e-01</leafValues></_>
        <_>
          <internalNodes>
            0 -1 0 -5.2930459787603468e-05</internalNodes>
          <leafValues>
            -8.3706134557723999e-01 2.0584747195243835e-01</leafValues></_></weakClassifiers></_>
    <!-- stage 5 -->
    <_>
      <maxWeakCount>6</maxWeakCount>
      <stageThreshold>-1.2104460000991821e+00</stageThreshold>
      <weakClassifiers>
        <_>
          <internalNodes>
            0 -1 108 1.8579535186290741e-02</internalNodes>
          <leafValues>
            -7.6947039365768433e-01 5.9493672847747803e-01</leafValues></_>
        <_>
          <internalNodes>
            0 -1 8 3.8899701088666916e-02</internalNodes>
          <leafValues>
            -4.3134459853172302e-01 6.8817996978759766e-01</leafValues></_>
        <_>
          <internalNodes>
            0 -1 14 1.1613739479798824e-04</internalNodes>
          <leafValues>
            2.6671138405799866e-01 -7.7981054782867432e-01</leafValues></_>
        <_>
          <internalNodes>
            0 -1 122 -1.1935804039239883e-02</internalNodes>
          <leafValues>
            6.9021946191787720e-01 -3.3316245675086975e-01</leafValues></_>
        <_>
          <internalNodes>
            0 -1 138 -3.4749902784824371e-02</internalNodes>
          <leafValues>
            8.2309681177139282e-01 -2.3757582902908325e-01</leafValues></_>
        <_>
          <internalNodes>
            0 -1 49 1.4910940080881119e-04</internalNodes>
          <leafValues>
            3.1753587722778320e-01 -8.0983024835586548e-01</leafValues></_></weakClassifiers></_>
    <!-- stage 6 -->
    <_>
      <maxWeakCount>5</maxWeakCount>
      <stageThreshold>-1.2267481088638306e+00</stageThreshold>
      <weakClassifiers>
        <_>
          <internalNodes>
            0 -1 55 -2.4273231625556946e-01</internalNodes>
          <leafValues>
            4.1666665673255920e-01 -7.4367088079452515e-01</leafValues></_>
        <_>
          <internalNodes>
            0 -1 21 -2.0644694566726685e-02</internalNodes>
          <leafValues>
            1.2430046498775482e-01 -7.9343771934509277e-01</leafValues></_>
        <_>
          <internalNodes>
            0 -1 113 8.1817578757181764e-04</internalNodes>
          <leafValues>
            -5.9652698040008545e-01 2.8726932406425476e-01</leafValues></_>
        <_>
          <internalNodes>
            0 -1 50 -2.2037350572645664e-03</internalNodes>
          <leafValues>
            4.7131633758544922e-01 -4.1787758469581604e-01</leafValues></_>
        <_>
          <internalNodes>
            0 -1 97 -2.4719459470361471e-03</internalNodes>
          <leafValues>
            4.0702688694000244e-01 -4.4704058766365051e-01</leafValues></_></weakClassifiers></_>
    <!-- stage 7 -->
    <_>
      <maxWeakCount>6</maxWeakCount>
      <stageThreshold>-1.1513603925704956e+00</stageThreshold>
      <weakClassifiers>
        <_>
          <internalNodes>
            0 -1 10 6.6603310406208038e-02</internalNodes>
          <leafValues>
            -7.3174870014190674e-01 1.4691942930221558e-01</leafValues></_>
        <_>
          <internalNodes>
            0 -1 89 -2.7363686822354794e-03</internalNodes>
          <leafValues>
            1.5839225053787231e-01 -7.3533982038497925e-01</leafValues></_>
        <_>
          <internalNodes>
            0 -1 9 -3.4636862576007843e-02</internalNodes>
          <leafValues>
            2.1888303756713867e-01 -8.3527457714080811e-01</leafValues></_>
        <_>
          <internalNodes>
            0 -1 60 1.3489078730344772e-02</internalNodes>
          <leafValues>
            -6.1171513795852661e-01 2.7633965015411377e-01</leafValues></_>
        <_>
          <internalNodes>
            0 -1 95 5.6687591131776571e-04</internalNodes>
          <leafValues>
            -2.8392410278320312e-01 6.3840156793594360e-01</leafValues></_>
        <_>
          <internalNodes>
            0 -1 127 -1.9790304824709892e-02</internalNodes>
          <leafValues>
            -6.5809231996536255e-01 2.7991902828216553e-01</leafValues></_></weakClassifiers></_>
    <!-- stage 8 -->
    <_>
      <maxWeakCount>9</maxWeakCount>
      <stageThreshold>-8.6094558238983154e-01</stageThreshold>
      <weakClassifiers>
        <_>
          <internalNodes>
            0 -1 129 -9.8154619336128235e-03</internalNodes>
          <leafValues>
            4.2857143282890320e-01 -6.6226136684417725e-01</leafValues></_>
        <_>
          <internalNodes>
            0 -1 3 -3.8618558645248413e-01</internalNodes>
          <leafValues>
            5.8414405584335327e-01 -3.3657175302505493e-01</leafValues></_>
        <_>
          <internalNodes>
            0 -1 80 7.9701264621689916e-04</internalNodes>
          <leafValues>
            2.0913517475128174e-01 -7.0118635892868042e-01</leafValues></_>
        <_>
          <internalNodes>
            0 -1 92 -1.1088305618613958e-03</internalNodes>
          <leafValues>
            6.6815221309661865e-01 -2.2161790728569031e-01</leafValues></_>
        <_>
          <internalNodes>
            0 -1 86 -2.6393175357952714e-04</internalNodes>
          <leafValues>
            6.4275246858596802e-01 -2.3330062627792358e-01</leafValues></_>
        <_>
          <internalNodes>
            0 -1 63 -1.5416617970913649e-03</internalNodes>
          <leafValues>
            -6.7095857858657837e-01 2.9414013028144836e-01</leafValues></_>
        <_>
          <internalNodes>
            0 -1 82 3.8266673800535500e-04</internalNodes>
          <leafValues>
            -2.9182147979736328e-01 7.7453678846359253e-01</leafValues></_>
        <_>
          <internalNodes>
            0 -1 139 -1.2936044950038195e-03</internalNodes>
          <leafValues>
            6.4947867393493652e-01 -2.1577365696430206e-01</leafValues></_>
        <_>
          <internalNodes>
            0 -1 148 -5.8388486504554749e-03</internalNodes>
          <leafValues>
            7.0948255062103271e-01 -2.3385797441005707e-01</leafValues></_></weakClassifiers></_>
    <!-- stage 9 -->
    <_>
      <maxWeakCount>7</maxWeakCount>
      <stageThreshold>-1.5244069099426270e+00</stageThreshold>
      <weakClassifiers>
        <_>
          <internalNodes>
            0 -1 54 -1.9161242246627808e-01</internalNodes>
          <leafValues>
            5.8823529630899429e-02 -6.9127517938613892e-01</leafValues></_>
        <_>
          <internalNodes>
            0 -1 44 -5.2273375913500786e-03</internalNodes>
          <leafValues>
            1.1841123551130295e-01 -7.1629798412322998e-01</leafValues></_>
        <_>
          <internalNodes>
            0 -1 90 1.8496377742849290e-04</internalNodes>
          <leafValues>
            1.8792732059955597e-01 -7.0361006259918213e-01</leafValues></_>
        <_>
          <internalNodes>
            0 -1 81 -5.4926201701164246e-03</internalNodes>
          <leafValues>
            -7.7921181917190552e-01 1.9524876773357391e-01</leafValues></_>
        <_>
          <internalNodes>
            0 -1 23 3.7736498052254319e-04</internalNodes>
          <leafValues>
            2.0241625607013702e-01 -6.8887823820114136e-01</leafValues></_>
        <_>
          <internalNodes>
            0 -1 38 5.6440338492393494e-02</internalNodes>
          <leafValues>
            -3.3149385452270508e-01 4.9662989377975464e-01</leafValues></_>
        <_>
          <internalNodes>
            0 -1 118 -3.9100888534449041e-04</internalNodes>
          <leafValues>
            4.9792292714118958e-01 -3.1434696912765503e-01</leafValues></_></weakClassifiers></_>
    <!-- stage 10 -->
    <_>
      <maxWeakCount>9</maxWeakCount>
      <stageThreshold>-1.5525646209716797e+00</stageThreshold>
      <weakClassifiers>
        <_>
          <internalNodes>
            0 -1 53 -2.3862691223621368e-01</internalNodes>
          <leafValues>
            9.3333333730697632e-02 -6.3692307472229004e-01</leafValues></_>
        <_>
          <internalNodes>
            0 -1 84 2.2433791309595108e-03</internalNodes>
          <leafValues>
            9.9403053522109985e-02 -7.0479696989059448e-01</leafValues></_>
        <_>
          <internalNodes>
            0 -1 30 1.1070772598031908e-04</internalNodes>
          <leafValues>
            1.4549160003662109e-01 -6.7477172613143921e-01</leafValues></_>
        <_>
          <internalNodes>
            0 -1 52 -1.0040930646937340e-04</internalNodes>
          <leafValues>
            2.5219845771789551e-01 -4.8019093275070190e-01</leafValues></_>
        <_>
          <internalNodes>
            0 -1 61 -5.6705676252022386e-04</internalNodes>
          <leafValues>
            7.9010909795761108e-01 -1.4980638027191162e-01</leafValues></_>
        <_>
          <internalNodes>
            0 -1 62 -5.1725380122661591e-02</internalNodes>
          <leafValues>
            -9.6523231267929077e-01 1.6610909998416901e-01</leafValues></_>
        <_>
          <internalNodes>
            0 -1 18 -7.5828749686479568e-05</internalNodes>
          <leafValues>
            -7.6966124773025513e-01 1.2731808423995972e-01</leafValues></_>
        <_>
          <internalNodes>
            0 -1 111 5.8431457728147507e-04</internalNodes>
          <leafValues>
            -2.4939888715744019e-01 5.4554742574691772e-01</leafValues></_>
        <_>
          <internalNodes>
            0 -1 147 -2.7041800785809755e-04</internalNodes>
          <leafValues>
            -5.7456713914871216e-01 2.4005216360092163e-01</leafValues></_></weakClassifiers></_>
    <!-- stage 11 -->
    <_>
      <maxWeakCount>8</maxWeakCount>
      <stageThreshold>-1.0523995161056519e+00</stageThreshold>
      <weakClassifiers>
        <_>
          <internalNodes>
            0 -1 140 -2.5886115618050098e-03</internalNodes>
          <leafValues>
            1.7829456925392151e-01 -6.3040238618850708e-01</leafValues></_>
        <_>
          <internalNodes>
            0 -1 2 8.4051809972152114e-04</internalNodes>
          <leafValues>
            -3.6006438732147217e-01 3.7296864390373230e-01</leafValues></_>
        <_>
          <internalNodes>
            0 -1 29 9.0792673290707171e-05</internalNodes>
          <leafValues>
            1.8396486341953278e-01 -5.8171021938323975e-01</leafValues></_>
        <_>
          <internalNodes>
            0 -1 143 -4.2484398363740183e-06</internalNodes>
          <leafValues>
            2.9219692945480347e-01 -4.0761426091194153e-01</leafValues></_>
        <_>
          <internalNodes>
            0 -1 120 -1.9820859655737877e-02</internalNodes>
          <leafValues>
            4.1677480936050415e-01 -2.8728008270263672e-01</leafValues></_>
        <_>
          <internalNodes>
            0 -1 150 -1.8467877060174942e-02</internalNodes>
          <leafValues>
            7.2750127315521240e-01 -1.5488560497760773e-01</leafValues></_>
        <_>
          <internalNodes>
            0 -1 135 1.6773605020716786e-03</internalNodes>
          <leafValues>
            1.8108592927455902e-01 -6.9802957773208618e-01</leafValues></_>
        <_>
          <internalNodes>
            0 -1 78 3.5883229225873947e-02</internalNodes>
          <leafValues>
            -2.0659621059894562e-01 5.9535896778106689e-01</leafValues></_></weakClassifiers></_>
    <!-- stage 12 -->
    <_>
      <maxWeakCount>10</maxWeakCount>
      <stageThreshold>-1.2164826393127441e+00</stageThreshold>
      <weakClassifiers>
        <_>
          <internalNodes>
            0 -1 68 5.3533510072156787e-04</internalNodes>
          <leafValues>
            -5.6972110271453857e-01 6.1702126264572144e-01</leafValues></_>
        <_>
          <internalNodes>
            0 -1 20 -2.3032411932945251e-02</internalNodes>
          <leafValues>
            1.0818252712488174e-01 -6.5609562397003174e-01</leafValues></_>
        <_>
          <internalNodes>
            0 -1 47 1.8306361511349678e-02</internalNodes>
          <leafValues>
            -1.9235731661319733e-01 5.6585878133773804e-01</leafValues></_>
        <_>
          <internalNodes>
            0 -1 106 -8.6785346502438188e-04</internalNodes>
          <leafValues>
            2.8922659158706665e-01 -4.0679517388343811e-01</leafValues></_>
        <_>
          <internalNodes>
            0 -1 102 8.7357405573129654e-03</internalNodes>
          <leafValues>
            1.5269705653190613e-01 -8.6881041526794434e-01</leafValues></_>
        <_>
          <internalNodes>
            0 -1 99 -8.1114759668707848e-03</internalNodes>
          <leafValues>
            -9.0840250253677368e-01 1.2819102406501770e-01</leafValues></_>
        <_>
          <internalNodes>
            0 -1 159 -1.1729495599865913e-03</internalNodes>
          <leafValues>
            -6.5173941850662231e-01 1.4833733439445496e-01</leafValues></_>
        <_>
          <internalNodes>
            0 -1 144 -5.5640167556703091e-04</internalNodes>
          <leafValues>
            5.8159953355789185e-01 -2.1442919969558716e-01</leafValues></_>
        <_>
          <internalNodes>
            0 -1 128 2.5067848619073629e-03</internalNodes>
          <leafValues>
            -2.1080476045608521e-01 5.6252193450927734e-01</leafValues></_>
        <_>
          <internalNodes>
            0 -1 119 2.9322269838303328e-03</internalNodes>
          <leafValues>
            1.8078874051570892e-01 -7.7299964427947998e-01</leafValues></_></weakClassifiers></_>
    <!-- stage 13 -->
    <_>
      <maxWeakCount>10</maxWeakCount>
      <stageThreshold>-1.0618436336517334e+00</stageThreshold>
      <weakClassifiers>
        <_>
          <internalNodes>
            0 -1 101 5.2360055269673467e-04</internalNodes>
          <leafValues>
            -5.6556290388107300e-01 6.0000002384185791e-01</leafValues></_>
        <_>
          <internalNodes>
            0 -1 112 -8.0192461609840393e-04</internalNodes>
          <leafValues>
            3.9380377531051636e-01 -3.2589516043663025e-01</leafValues></_>
        <_>
          <internalNodes>
            0 -1 19 -1.4254606328904629e-02</internalNodes>
          <leafValues>
            2.2883732616901398e-01 -5.3827935457229614e-01</leafValues></_>
        <_>
          <internalNodes>
            0 -1 67 -1.0872955899685621e-03</internalNodes>
          <leafValues>
            4.5864665508270264e-01 -2.6131254434585571e-01</leafValues></_>
        <_>
          <internalNodes>
            0 -1 83 -5.7259888853877783e-04</internalNodes>
          <leafValues>
            -7.9977625608444214e-01 2.0700177550315857e-01</leafValues></_>
        <_>
          <internalNodes>
            0 -1 133 -4.0558357723057270e-03</internalNodes>
          <leafValues>
            5.6578946113586426e-01 -2.3001417517662048e-01</leafValues></_>
        <_>
          <internalNodes>
            0 -1 79 2.7810863684862852e-03</internalNodes>
          <leafValues>
            1.7293852567672729e-01 -7.2438168525695801e-01</leafValues></_>
        <_>
          <internalNodes>
            0 -1 1 2.6283708866685629e-03</internalNodes>
          <leafValues>
            -2.6016658544540405e-01 4.5574808120727539e-01</leafValues></_>
        <_>
          <internalNodes>
            0 -1 28 1.3814843259751797e-04</internalNodes>
          <leafValues>
            1.7224524915218353e-01 -7.6067024469375610e-01</leafValues></_>
        <_>
          <internalNodes>
            0 -1 5 1.4907713048160076e-02</internalNodes>
          <leafValues>
            1.6426110267639160e-01 -7.3820853233337402e-01</leafValues></_></weakClassifiers></_>
    <!-- stage 14 -->
    <_>
      <maxWeakCount>11</maxWeakCount>
      <stageThreshold>-1.1908849477767944e+00</stageThreshold>
      <weakClassifiers>
        <_>
          <internalNodes>
            0 -1 87 -6.8218336673453450e-04</internalNodes>
          <leafValues>
            5.0000000000000000e-01 -5.7526880502700806e-01</leafValues></_>
        <_>
          <internalNodes>
            0 -1 110 -4.4384069042280316e-04</internalNodes>
          <leafValues>
            4.2333164811134338e-01 -2.5481840968132019e-01</leafValues></_>
        <_>
          <internalNodes>
            0 -1 70 -5.8983709663152695e-02</internalNodes>
          <leafValues>
            -9.0717589855194092e-01 1.0382462292909622e-01</leafValues></_>
        <_>
          <internalNodes>
            0 -1 48 -1.5021176659502089e-04</internalNodes>
          <leafValues>
            -7.3813754320144653e-01 1.6955631971359253e-01</leafValues></_>
        <_>
          <internalNodes>
            0 -1 85 -2.5157429277896881e-02</internalNodes>
          <leafValues>
            -7.4307352304458618e-01 1.1391278356313705e-01</leafValues></_>
        <_>
          <internalNodes>
            0 -1 107 -3.2388095860369503e-04</internalNodes>
          <leafValues>
            6.0290211439132690e-01 -1.9906155765056610e-01</leafValues></_>
        <_>
          <internalNodes>
            0 -1 26 -3.6362206446938217e-04</internalNodes>
          <leafValues>
            -6.3938575983047485e-01 2.1717730164527893e-01</leafValues></_>
        <_>
          <internalNodes>
            0 -1 39 -9.8910843953490257e-03</internalNodes>
          <leafValues>
            4.0074291825294495e-01 -2.8882178664207458e-01</leafValues></_>
        <_>
          <internalNodes>
            0 -1 146 -6.1106809880584478e-04</internalNodes>
          <leafValues>
            4.8757195472717285e-01 -2.2863580286502838e-01</leafValues></_>
        <_>
          <internalNodes>
            0 -1 130 -1.3463383074849844e-03</internalNodes>
          <leafValues>
            9.2906022071838379e-01 -1.0501682013273239e-01</leafValues></_>
        <_>
          <internalNodes>
            0 -1 152 6.1561050824820995e-03</internalNodes>
          <leafValues>
            1.7770302295684814e-01 -7.8272765874862671e-01</leafValues></_></weakClassifiers></_>
    <!-- stage 15 -->
    <_>
      <maxWeakCount>12</maxWeakCount>
      <stageThreshold>-1.2875882387161255e+00</stageThreshold>
      <weakClassifiers>
        <_>
          <internalNodes>
            0 -1 71 8.1982673145830631e-04</internalNodes>
          <leafValues>
            -5.6291389465332031e-01 5.5555558204650879e-01</leafValues></_>
        <_>
          <internalNodes>
            0 -1 154 -5.7406304404139519e-03</internalNodes>
          <leafValues>
            -7.7117705345153809e-01 7.7662311494350433e-02</leafValues></_>
        <_>
          <internalNodes>
            0 -1 65 -4.8005889402702451e-04</internalNodes>
          <leafValues>
            1.8870630860328674e-01 -4.6970459818840027e-01</leafValues></_>
        <_>
          <internalNodes>
            0 -1 149 2.5711054913699627e-03</internalNodes>
          <leafValues>
            1.7166079580783844e-01 -6.2264609336853027e-01</leafValues></_>
        <_>
          <internalNodes>
            0 -1 42 -3.0362876132130623e-03</internalNodes>
          <leafValues>
            1.9267106056213379e-01 -5.4584896564483643e-01</leafValues></_>
        <_>
          <internalNodes>
            0 -1 25 -1.7631773650646210e-01</internalNodes>
          <leafValues>
            -9.7523683309555054e-01 8.9643001556396484e-02</leafValues></_>
        <_>
          <internalNodes>
            0 -1 45 1.5020464779809117e-03</internalNodes>
          <leafValues>
            -2.2168271243572235e-01 5.3953260183334351e-01</leafValues></_>
        <_>
          <internalNodes>
            0 -1 51 -8.1344769569113851e-05</internalNodes>
          <leafValues>
            -6.7330467700958252e-01 1.5950560569763184e-01</leafValues></_>
        <_>
          <internalNodes>
            0 -1 46 -5.5415497627109289e-04</internalNodes>
          <leafValues>
            5.1963090896606445e-01 -2.2438161075115204e-01</leafValues></_>
        <_>
          <internalNodes>
            0 -1 131 -1.4805907383561134e-02</internalNodes>
          <leafValues>
            4.1335290670394897e-01 -3.1437104940414429e-01</leafValues></_>
        <_>
          <internalNodes>
            0 -1 93 -4.5471976045519114e-04</internalNodes>
          <leafValues>
            7.4671095609664917e-01 -1.5852265059947968e-01</leafValues></_>
        <_>
          <internalNodes>
            0 -1 157 1.2647843686863780e-04</internalNodes>
          <leafValues>
            1.7839358747005463e-01 -6.8556541204452515e-01</leafValues></_></weakClassifiers></_>
    <!-- stage 16 -->
    <_>
      <maxWeakCount>10</maxWeakCount>
      <stageThreshold>-1.3091626167297363e+00</stageThreshold>
      <weakClassifiers>
        <_>
          <internalNodes>
            0 -1 57 -7.3729746509343386e-04</internalNodes>
          <leafValues>
            3.8235294818878174e-01 -5.8196723461151123e-01</leafValues></_>
        <_>
          <internalNodes>
            0 -1 126 -1.7663241596892476e-03</internalNodes>
          <leafValues>
            1.9102771580219269e-01 -4.8061043024063110e-01</leafValues></_>
        <_>
          <internalNodes>
            0 -1 145 3.9797899080440402e-04</internalNodes>
          <leafValues>
            -4.9154770374298096e-01 2.0481221377849579e-01</leafValues></_>
        <_>
          <internalNodes>
            0 -1 98 -2.9090477619320154e-04</internalNodes>
          <leafValues>
            7.1377509832382202e-01 -1.6166278719902039e-01</leafValues></_>
        <_>
          <internalNodes>
            0 -1 151 1.5009134076535702e-03</internalNodes>
          <leafValues>
            2.0996424555778503e-01 -7.3361957073211670e-01</leafValues></_>
        <_>
          <internalNodes>
            0 -1 132 -1.7689836386125535e-04</internalNodes>
          <leafValues>
            2.9961174726486206e-01 -3.5664099454879761e-01</leafValues></_>
        <_>
          <internalNodes>
            0 -1 13 -2.3106852313503623e-04</internalNodes>
          <leafValues>
            -6.2602138519287109e-01 1.6674503684043884e-01</leafValues></_>
        <_>
          <internalNodes>
            0 -1 123 -1.1530218180269003e-03</internalNodes>
          <leafValues>
            5.2950650453567505e-01 -2.3781682550907135e-01</leafValues></_>
        <_>
          <internalNodes>
            0 -1 76 -1.8371836631558836e-04</internalNodes>
          <leafValues>
            6.0391664505004883e-01 -1.8714641034603119e-01</leafValues></_>
        <_>
          <internalNodes>
            0 -1 24 1.4098930114414543e-04</internalNodes>
          <leafValues>
            1.3988228142261505e-01 -8.2641631364822388e-01</leafValues></_></weakClassifiers></_>
    <!-- stage 17 -->
    <_>
      <maxWeakCount>10</maxWeakCount>
      <stageThreshold>-1.3209621906280518e+00</stageThreshold>
      <weakClassifiers>
        <_>
          <internalNodes>
            0 -1 103 1.1916775256395340e-03</internalNodes>
          <leafValues>
            -5.6591212749481201e-01 5.1020407676696777e-01</leafValues></_>
        <_>
          <internalNodes>
            0 -1 7 4.7048465348780155e-03</internalNodes>
          <leafValues>
            -3.2887828350067139e-01 2.6555612683296204e-01</leafValues></_>
        <_>
          <internalNodes>
            0 -1 64 -5.9573103499133140e-06</internalNodes>
          <leafValues>
            2.6651847362518311e-01 -3.7068554759025574e-01</leafValues></_>
        <_>
          <internalNodes>
            0 -1 74 4.7835719306021929e-04</internalNodes>
          <leafValues>
            1.2257932126522064e-01 -8.3044582605361938e-01</leafValues></_>
        <_>
          <internalNodes>
            0 -1 134 -2.3915065685287118e-04</internalNodes>
          <leafValues>
            3.0319964885711670e-01 -3.4200829267501831e-01</leafValues></_>
        <_>
          <internalNodes>
            0 -1 136 3.9416644722223282e-03</internalNodes>
          <leafValues>
            1.4610353112220764e-01 -6.3161498308181763e-01</leafValues></_>
        <_>
          <internalNodes>
            0 -1 100 -9.9702994339168072e-04</internalNodes>
          <leafValues>
            5.5030530691146851e-01 -1.7248193919658661e-01</leafValues></_>
        <_>
          <internalNodes>
            0 -1 142 9.8558305762708187e-04</internalNodes>
          <leafValues>
            -4.0824109315872192e-01 2.6366868615150452e-01</leafValues></_>
        <_>
          <internalNodes>
            0 -1 32 7.0464622694998980e-05</internalNodes>
          <leafValues>
            1.9895845651626587e-01 -5.3137695789337158e-01</leafValues></_>
        <_>
          <internalNodes>
            0 -1 115 -6.4692285377532244e-04</internalNodes>
          <leafValues>
            4.4224449992179871e-01 -2.7230599522590637e-01</leafValues></_></weakClassifiers></_>
    <!-- stage 18 -->
    <_>
      <maxWeakCount>12</maxWeakCount>
      <stageThreshold>-1.3924075365066528e+00</stageThreshold>
      <weakClassifiers>
        <_>
          <internalNodes>
            0 -1 117 3.8228302728384733e-03</internalNodes>
          <leafValues>
            -5.5324673652648926e-01 8.6666667461395264e-01</leafValues></_>
        <_>
          <internalNodes>
            0 -1 105 -2.7021479327231646e-03</internalNodes>
          <leafValues>
            1.1721327900886536e-01 -5.6509244441986084e-01</leafValues></_>
        <_>
          <internalNodes>
            0 -1 153 3.5426546819508076e-03</internalNodes>
          <leafValues>
            1.1437848210334778e-01 -8.6636912822723389e-01</leafValues></_>
        <_>
          <internalNodes>
            0 -1 91 4.4081805390305817e-04</internalNodes>
          <leafValues>
            -1.1383827030658722e-01 7.0205771923065186e-01</leafValues></_>
        <_>
          <internalNodes>
            0 -1 124 -5.6674648076295853e-03</internalNodes>
          <leafValues>
            5.2652317285537720e-01 -1.7553851008415222e-01</leafValues></_>
        <_>
          <internalNodes>
            0 -1 141 -7.1377046406269073e-03</internalNodes>
          <leafValues>
            7.3811048269271851e-01 -1.4679017663002014e-01</leafValues></_>
        <_>
          <internalNodes>
            0 -1 59 4.2008340358734131e-02</internalNodes>
          <leafValues>
            -1.2788796424865723e-01 7.0532405376434326e-01</leafValues></_>
        <_>
          <internalNodes>
            0 -1 75 4.4421217171475291e-04</internalNodes>
          <leafValues>
            -1.3595521450042725e-01 6.3066083192825317e-01</leafValues></_>
        <_>
          <internalNodes>
            0 -1 72 1.3106020167469978e-02</internalNodes>
          <leafValues>
            -1.4900249242782593e-01 6.3542717695236206e-01</leafValues></_>
        <_>
          <internalNodes>
            0 -1 155 6.3721026890561916e-06</internalNodes>
          <leafValues>
            -3.1355053186416626e-01 3.1808993220329285e-01</leafValues></_>
        <_>
          <internalNodes>
            0 -1 158 -4.7982868272811174e-04</internalNodes>
          <leafValues>
            -7.9573678970336914e-01 1.6355039179325104e-01</leafValues></_>
        <_>
          <internalNodes>
            0 -1 34 -4.0487863589078188e-04</internalNodes>
          <leafValues>
            3.8767939805984497e-01 -2.7433469891548157e-01</leafValues></_></weakClassifiers></_>
    <!-- stage 19 -->
    <_>
      <maxWeakCount>13</maxWeakCount>
      <stageThreshold>-1.0768634080886841e+00</stageThreshold>
      <weakClassifiers>
        <_>
          <internalNodes>
            0 -1 41 -9.5122098922729492e-02</internalNodes>
          <leafValues>
            2.3684211075305939e-01 -5.7734805345535278e-01</leafValues></_>
        <_>
          <internalNodes>
            0 -1 156 8.4799656178802252e-05</internalNodes>
          <leafValues>
            7.7599592506885529e-02 -6.4990752935409546e-01</leafValues></_>
        <_>
          <internalNodes>
            0 -1 4 6.0550579801201820e-03</internalNodes>
          <leafValues>
            -1.7044919729232788e-01 5.5937182903289795e-01</leafValues></_>
        <_>
          <internalNodes>
            0 -1 109 1.2325786054134369e-01</internalNodes>
          <leafValues>
            1.0402317345142365e-01 -9.3291229009628296e-01</leafValues></_>
        <_>
          <internalNodes>
            0 -1 58 -2.4562311591580510e-04</internalNodes>
          <leafValues>
            6.2160789966583252e-01 -1.4461117982864380e-01</leafValues></_>
        <_>
          <internalNodes>
            0 -1 69 1.8347962759435177e-04</internalNodes>
          <leafValues>
            1.6063323616981506e-01 -6.4835315942764282e-01</leafValues></_>
        <_>
          <internalNodes>
            0 -1 27 1.4387423289008439e-04</internalNodes>
          <leafValues>
            1.3367944955825806e-01 -6.6380965709686279e-01</leafValues></_>
        <_>
          <internalNodes>
            0 -1 77 6.8386003840714693e-04</internalNodes>
          <leafValues>
            -1.3699974119663239e-01 7.0455080270767212e-01</leafValues></_>
        <_>
          <internalNodes>
            0 -1 11 -1.3269417104311287e-04</internalNodes>
          <leafValues>
            -5.0674605369567871e-01 2.0123347640037537e-01</leafValues></_>
        <_>
          <internalNodes>
            0 -1 94 -2.1024928719270974e-04</internalNodes>
          <leafValues>
            5.6726747751235962e-01 -1.9179449975490570e-01</leafValues></_>
        <_>
          <internalNodes>
            0 -1 125 -3.9301281794905663e-03</internalNodes>
          <leafValues>
            2.8303983807563782e-01 -3.6133441329002380e-01</leafValues></_>
        <_>
          <internalNodes>
            0 -1 104 -8.4712263196706772e-03</internalNodes>
          <leafValues>
            -7.6792210340499878e-01 1.2775470316410065e-01</leafValues></_>
        <_>
          <internalNodes>
            0 -1 36 -6.3269883394241333e-03</internalNodes>
          <leafValues>
            4.4060558080673218e-01 -2.3564462363719940e-01</leafValues></_></weakClassifiers></_></stages>
  <features>
    <_>
      <rects>
        <_>
          0 2 2 1 -1.</_>
        <_>
          1 2 1 1 2.</_></rects>
      <tilted>0</tilted></_>
    <_>
      <rects>
        <_>
          0 7 4 30 -1.</_>
        <_>
          2 7 2 30 2.</_></rects>
      <tilted>0</tilted></_>
    <_>
      <rects>
        <_>
          0 8 2 32 -1.</_>
        <_>
          1 8 1 32 2.</_></rects>
      <tilted>0</tilted></_>
    <_>
      <rects>
        <_>
          0 11 36 30 -1.</_>
        <_>
          12 21 12 10 9.</_></rects>
      <tilted>0</tilted></_>
    <_>
      <rects>
        <_>
          0 12 4 24 -1.</_>
        <_>
          2 12 2 24 2.</_></rects>
      <tilted>0</tilted></_>
    <_>
      <rects>
        <_>
          0 14 16 21 -1.</_>
        <_>
          0 21 16 7 3.</_></rects>
      <tilted>0</tilted></_>
    <_>
      <rects>
        <_>
          0 18 26 13 -1.</_>
        <_>
          13 18 13 13 2.</_></rects>
      <tilted>0</tilted></_>
    <_>
      <rects>
        <_>
          0 19 8 22 -1.</_>
        <_>
          0 19 4 11 2.</_>
        <_>
          4 30 4 11 2.</_></rects>
      <tilted>0</tilted></_>
    <_>
      <rects>
        <_>
          0 19 16 26 -1.</_>
        <_>
          0 19 8 13 2.</_>
        <_>
          8 32 8 13 2.</_></rects>
      <tilted>0</tilted></_>
    <_>
      <rects>
        <_>
          0 20 42 19 -1.</_>
        <_>
          21 20 21 19 2.</_></rects>
      <tilted>0</tilted></_>
    <_>
      <rects>
        <_>
          0 21 26 24 -1.</_>
        <_>
          0 21 13 12 2.</_>
        <_>
          13 33 13 12 2.</_></rects>
      <tilted>0</tilted></_>
    <_>
      <rects>
        <_>
          0 23 2 4 -1.</_>
        <_>
          0 25 2 2 2.</_></rects>
      <tilted>0</tilted></_>
    <_>
      <rects>
        <_>
          0 23 22 5 -1.</_>
        <_>
          11 23 11 5 2.</_></rects>
      <tilted>0</tilted></_>
    <_>
      <rects>
        <_>
          0 49 6 1 -1.</_>
        <_>
          3 49 3 1 2.</_></rects>
      <tilted>0</tilted></_>
    <_>
      <rects>
        <_>
          1 1 4 2 -1.</_>
        <_>
          2 1 2 2 2.</_></rects>
      <tilted>0</tilted></_>
    <_>
      <rects>
        <_>
          1 12 5 2 -1.</_>
        <_>
          1 13 5 1 2.</_></rects>
      <tilted>0</tilted></_>
    <_>
      <rects>
        <_>
          1 27 1 2 -1.</_>
        <_>
          1 28 1 1 2.</_></rects>
      <tilted>0</tilted></_>
    <_>
      <rects>
        <_>
          1 27 2 2 -1.</_>
        <_>
          1 28 2 1 2.</_></rects>
      <tilted>0</tilted></_>
    <_>
      <rects>
        <_>
          2 9 2 1 -1.</_>
        <_>
          3 9 1 1 2.</_></rects>
      <tilted>0</tilted></_>
    <_>
      <rects>
        <_>
          2 16 16 21 -1.</_>
        <_>
          10 16 8 21 2.</_></rects>
      <tilted>0</tilted></_>
    <_>
      <rects>
        <_>
          2 18 39 8 -1.</_>
        <_>
          15 18 13 8 3.</_></rects>
      <tilted>0</tilted></_>
    <_>
      <rects>
        <_>
          2 20 36 10 -1.</_>
        <_>
          14 20 12 10 3.</_></rects>
      <tilted>0</tilted></_>
    <_>
      <rects>
        <_>
          2 21 26 11 -1.</_>
        <_>
          15 21 13 11 2.</_></rects>
      <tilted>0</tilted></_>
    <_>
      <rects>
        <_>
          2 29 1 10 -1.</_>
        <_>
          2 34 1 5 2.</_></rects>
      <tilted>0</tilted></_>
    <_>
      <rects>
        <_>
          2 39 2 2 -1.</_>
        <_>
          2 40 2 1 2.</_></rects>
      <tilted>0</tilted></_>
    <_>
      <rects>
        <_>
          3 4 33 46 -1.</_>
        <_>
          14 4 11 46 3.</_></rects>
      <tilted>0</tilted></_>
    <_>
      <rects>
        <_>
          3 11 2 6 -1.</_>
        <_>
          3 14 2 3 2.</_></rects>
      <tilted>0</tilted></_>
    <_>
      <rects>
        <_>
          3 17 1 2 -1.</_>
        <_>
          3 17 1 1 2.</_></rects>
      <tilted>1</tilted></_>
    <_>
      <rects>
        <_>
          3 19 1 2 -1.</_>
        <_>
          3 19 1 1 2.</_></rects>
      <tilted>1</tilted></_>
    <_>
      <rects>
        <_>
          4 14 1 2 -1.</_>
        <_>
          4 14 1 1 2.</_></rects>
      <tilted>1</tilted></_>
    <_>
      <rects>
        <_>
          4 22 1 2 -1.</_>
        <_>
          4 22 1 1 2.</_></rects>
      <tilted>1</tilted></_>
    <_>
      <rects>
        <_>
          4 22 38 28 -1.</_>
        <_>
          23 22 19 28 2.</_></rects>
      <tilted>0</tilted></_>
    <_>
      <rects>
        <_>
          4 35 4 1 -1.</_>
        <_>
          6 35 2 1 2.</_></rects>
      <tilted>0</tilted></_>
    <_>
      <rects>
        <_>
          4 36 2 6 -1.</_>
        <_>
          5 36 1 6 2.</_></rects>
      <tilted>0</tilted></_>
    <_>
      <rects>
        <_>
          5 11 3 22 -1.</_>
        <_>
          6 11 1 22 3.</_></rects>
      <tilted>0</tilted></_>
    <_>
      <rects>
        <_>
          5 12 2 1 -1.</_>
        <_>
          6 12 1 1 2.</_></rects>
      <tilted>0</tilted></_>
    <_>
      <rects>
        <_>
          6 0 14 5 -1.</_>
        <_>
          6 0 7 5 2.</_></rects>
      <tilted>1</tilted></_>
    <_>
      <rects>
        <_>
          6 6 30 39 -1.</_>
        <_>
          16 19 10 13 9.</_></rects>
      <tilted>0</tilted></_>
    <_>
      <rects>
        <_>
          6 26 23 24 -1.</_>
        <_>
          6 32 23 12 2.</_></rects>
      <tilted>0</tilted></_>
    <_>
      <rects>
        <_>
          8 42 35 8 -1.</_>
        <_>
          8 46 35 4 2.</_></rects>
      <tilted>0</tilted></_>
    <_>
      <rects>
        <_>
          8 44 3 2 -1.</_>
        <_>
          8 44 3 1 2.</_></rects>
      <tilted>1</tilted></_>
    <_>
      <rects>
        <_>
          9 17 36 20 -1.</_>
        <_>
          9 17 18 10 2.</_>
        <_>
          27 27 18 10 2.</_></rects>
      <tilted>0</tilted></_>
    <_>
      <rects>
        <_>
          10 0 24 28 -1.</_>
        <_>
          16 0 12 28 2.</_></rects>
      <tilted>0</tilted></_>
    <_>
      <rects>
        <_>
          10 3 28 28 -1.</_>
        <_>
          10 17 28 14 2.</_></rects>
      <tilted>0</tilted></_>
    <_>
      <rects>
        <_>
          10 9 24 20 -1.</_>
        <_>
          16 9 12 20 2.</_></rects>
      <tilted>0</tilted></_>
    <_>
      <rects>
        <_>
          10 13 3 19 -1.</_>
        <_>
          11 13 1 19 3.</_></rects>
      <tilted>0</tilted></_>
    <_>
      <rects>
        <_>
          10 22 3 7 -1.</_>
        <_>
          11 22 1 7 3.</_></rects>
      <tilted>0</tilted></_>
    <_>
      <rects>
        <_>
          10 34 5 10 -1.</_>
        <_>
          10 34 5 5 2.</_></rects>
      <tilted>1</tilted></_>
    <_>
      <rects>
        <_>
          11 0 4 1 -1.</_>
        <_>
          13 0 2 1 2.</_></rects>
      <tilted>0</tilted></_>
    <_>
      <rects>
        <_>
          11 8 4 2 -1.</_>
        <_>
          11 9 4 1 2.</_></rects>
      <tilted>0</tilted></_>
    <_>
      <rects>
        <_>
          11 31 32 1 -1.</_>
        <_>
          27 31 16 1 2.</_></rects>
      <tilted>0</tilted></_>
    <_>
      <rects>
        <_>
          11 35 1 2 -1.</_>
        <_>
          11 36 1 1 2.</_></rects>
      <tilted>0</tilted></_>
    <_>
      <rects>
        <_>
          12 10 22 1 -1.</_>
        <_>
          23 10 11 1 2.</_></rects>
      <tilted>0</tilted></_>
    <_>
      <rects>
        <_>
          13 5 25 40 -1.</_>
        <_>
          13 15 25 20 2.</_></rects>
      <tilted>0</tilted></_>
    <_>
      <rects>
        <_>
          13 7 26 36 -1.</_>
        <_>
          13 16 26 18 2.</_></rects>
      <tilted>0</tilted></_>
    <_>
      <rects>
        <_>
          13 7 26 36 -1.</_>
        <_>
          13 19 26 12 3.</_></rects>
      <tilted>0</tilted></_>
    <_>
      <rects>
        <_>
          13 9 12 4 -1.</_>
        <_>
          13 9 6 4 2.</_></rects>
      <tilted>1</tilted></_>
    <_>
      <rects>
        <_>
          13 20 2 4 -1.</_>
        <_>
          13 20 1 2 2.</_>
        <_>
          14 22 1 2 2.</_></rects>
      <tilted>0</tilted></_>
    <_>
      <rects>
        <_>
          13 23 2 2 -1.</_>
        <_>
          13 23 1 1 2.</_>
        <_>
          14 24 1 1 2.</_></rects>
      <tilted>0</tilted></_>
    <_>
      <rects>
        <_>
          13 23 14 12 -1.</_>
        <_>
          10 26 14 6 2.</_></rects>
      <tilted>1</tilted></_>
    <_>
      <rects>
        <_>
          13 25 15 12 -1.</_>
        <_>
          13 31 15 6 2.</_></rects>
      <tilted>0</tilted></_>
    <_>
      <rects>
        <_>
          13 26 4 1 -1.</_>
        <_>
          14 26 2 1 2.</_></rects>
      <tilted>0</tilted></_>
    <_>
      <rects>
        <_>
          14 1 5 44 -1.</_>
        <_>
          14 23 5 22 2.</_></rects>
      <tilted>0</tilted></_>
    <_>
      <rects>
        <_>
          14 2 15 3 -1.</_>
        <_>
          19 2 5 3 3.</_></rects>
      <tilted>0</tilted></_>
    <_>
      <rects>
        <_>
          14 7 1 4 -1.</_>
        <_>
          14 7 1 2 2.</_></rects>
      <tilted>1</tilted></_>
    <_>
      <rects>
        <_>
          14 8 22 3 -1.</_>
        <_>
          25 8 11 3 2.</_></rects>
      <tilted>0</tilted></_>
    <_>
      <rects>
        <_>
          14 8 26 36 -1.</_>
        <_>
          14 20 26 12 3.</_></rects>
      <tilted>0</tilted></_>
    <_>
      <rects>
        <_>
          14 16 17 3 -1.</_>
        <_>
          14 17 17 1 3.</_></rects>
      <tilted>0</tilted></_>
    <_>
      <rects>
        <_>
          14 24 2 2 -1.</_>
        <_>
          14 24 1 1 2.</_>
        <_>
          15 25 1 1 2.</_></rects>
      <tilted>0</tilted></_>
    <_>
      <rects>
        <_>
          14 42 6 1 -1.</_>
        <_>
          17 42 3 1 2.</_></rects>
      <tilted>0</tilted></_>
    <_>
      <rects>
        <_>
          15 6 11 40 -1.</_>
        <_>
          15 26 11 20 2.</_></rects>
      <tilted>0</tilted></_>
    <_>
      <rects>
        <_>
          15 17 1 4 -1.</_>
        <_>
          15 18 1 2 2.</_></rects>
      <tilted>0</tilted></_>
    <_>
      <rects>
        <_>
          15 34 3 12 -1.</_>
        <_>
          11 38 3 4 3.</_></rects>
      <tilted>1</tilted></_>
    <_>
      <rects>
        <_>
          16 1 30 32 -1.</_>
        <_>
          16 17 30 16 2.</_></rects>
      <tilted>0</tilted></_>
    <_>
      <rects>
        <_>
          16 8 4 3 -1.</_>
        <_>
          18 8 2 3 2.</_></rects>
      <tilted>0</tilted></_>
    <_>
      <rects>
        <_>
          16 20 4 2 -1.</_>
        <_>
          16 20 2 1 2.</_>
        <_>
          18 21 2 1 2.</_></rects>
      <tilted>0</tilted></_>
    <_>
      <rects>
        <_>
          16 23 2 2 -1.</_>
        <_>
          16 23 1 1 2.</_>
        <_>
          17 24 1 1 2.</_></rects>
      <tilted>0</tilted></_>
    <_>
      <rects>
        <_>
          16 26 2 4 -1.</_>
        <_>
          16 26 1 2 2.</_>
        <_>
          17 28 1 2 2.</_></rects>
      <tilted>0</tilted></_>
    <_>
      <rects>
        <_>
          16 27 7 16 -1.</_>
        <_>
          12 31 7 8 2.</_></rects>
      <tilted>1</tilted></_>
    <_>
      <rects>
        <_>
          16 42 15 3 -1.</_>
        <_>
          21 42 5 3 3.</_></rects>
      <tilted>0</tilted></_>
    <_>
      <rects>
        <_>
          17 1 9 4 -1.</_>
        <_>
          20 1 3 4 3.</_></rects>
      <tilted>0</tilted></_>
    <_>
      <rects>
        <_>
          17 5 12 5 -1.</_>
        <_>
          23 5 6 5 2.</_></rects>
      <tilted>0</tilted></_>
    <_>
      <rects>
        <_>
          17 22 3 1 -1.</_>
        <_>
          18 22 1 1 3.</_></rects>
      <tilted>0</tilted></_>
    <_>
      <rects>
        <_>
          17 44 9 1 -1.</_>
        <_>
          20 44 3 1 3.</_></rects>
      <tilted>0</tilted></_>
    <_>
      <rects>
        <_>
          18 0 12 8 -1.</_>
        <_>
          21 0 6 8 2.</_></rects>
      <tilted>0</tilted></_>
    <_>
      <rects>
        <_>
          18 9 28 5 -1.</_>
        <_>
          18 9 14 5 2.</_></rects>
      <tilted>1</tilted></_>
    <_>
      <rects>
        <_>
          18 22 2 4 -1.</_>
        <_>
          18 22 1 2 2.</_>
        <_>
          19 24 1 2 2.</_></rects>
      <tilted>0</tilted></_>
    <_>
      <rects>
        <_>
          18 30 1 3 -1.</_>
        <_>
          18 31 1 1 3.</_></rects>
      <tilted>0</tilted></_>
    <_>
      <rects>
        <_>
          19 0 7 42 -1.</_>
        <_>
          19 14 7 14 3.</_></rects>
      <tilted>0</tilted></_>
    <_>
      <rects>
        <_>
          19 8 3 16 -1.</_>
        <_>
          19 16 3 8 2.</_></rects>
      <tilted>0</tilted></_>
    <_>
      <rects>
        <_>
          19 9 10 1 -1.</_>
        <_>
          24 9 5 1 2.</_></rects>
      <tilted>0</tilted></_>
    <_>
      <rects>
        <_>
          19 17 2 4 -1.</_>
        <_>
          19 17 1 2 2.</_>
        <_>
          20 19 1 2 2.</_></rects>
      <tilted>0</tilted></_>
    <_>
      <rects>
        <_>
          19 18 3 3 -1.</_>
        <_>
          20 19 1 1 9.</_></rects>
      <tilted>0</tilted></_>
    <_>
      <rects>
        <_>
          19 19 3 1 -1.</_>
        <_>
          20 19 1 1 3.</_></rects>
      <tilted>0</tilted></_>
    <_>
      <rects>
        <_>
          19 19 2 2 -1.</_>
        <_>
          19 19 1 1 2.</_>
        <_>
          20 20 1 1 2.</_></rects>
      <tilted>0</tilted></_>
    <_>
      <rects>
        <_>
          19 20 8 2 -1.</_>
        <_>
          19 20 4 1 2.</_>
        <_>
          23 21 4 1 2.</_></rects>
      <tilted>0</tilted></_>
    <_>
      <rects>
        <_>
          19 22 8 10 -1.</_>
        <_>
          19 22 8 5 2.</_></rects>
      <tilted>1</tilted></_>
    <_>
      <rects>
        <_>
          19 22 17 8 -1.</_>
        <_>
          19 24 17 4 2.</_></rects>
      <tilted>0</tilted></_>
    <_>
      <rects>
        <_>
          19 31 2 2 -1.</_>
        <_>
          19 31 1 1 2.</_>
        <_>
          20 32 1 1 2.</_></rects>
      <tilted>0</tilted></_>
    <_>
      <rects>
        <_>
          19 38 8 10 -1.</_>
        <_>
          23 38 4 10 2.</_></rects>
      <tilted>0</tilted></_>
    <_>
      <rects>
        <_>
          20 19 3 7 -1.</_>
        <_>
          21 19 1 7 3.</_></rects>
      <tilted>0</tilted></_>
    <_>
      <rects>
        <_>
          20 25 2 2 -1.</_>
        <_>
          20 25 1 1 2.</_>
        <_>
          21 26 1 1 2.</_></rects>
      <tilted>0</tilted></_>
    <_>
      <rects>
        <_>
          20 41 18 7 -1.</_>
        <_>
          26 41 6 7 3.</_></rects>
      <tilted>0</tilted></_>
    <_>
      <rects>
        <_>
          21 16 6 2 -1.</_>
        <_>
          21 16 3 1 2.</_>
        <_>
          24 17 3 1 2.</_></rects>
      <tilted>0</tilted></_>
    <_>
      <rects>
        <_>
          21 18 7 9 -1.</_>
        <_>
          21 21 7 3 3.</_></rects>
      <tilted>0</tilted></_>
    <_>
      <rects>
        <_>
          21 18 9 10 -1.</_>
        <_>
          21 23 9 5 2.</_></rects>
      <tilted>0</tilted></_>
    <_>
      <rects>
        <_>
          21 20 8 4 -1.</_>
        <_>
          21 22 8 2 2.</_></rects>
      <tilted>0</tilted></_>
    <_>
      <rects>
        <_>
          21 21 2 2 -1.</_>
        <_>
          22 21 1 2 2.</_></rects>
      <tilted>0</tilted></_>
    <_>
      <rects>
        <_>
          21 23 4 18 -1.</_>
        <_>
          21 32 4 9 2.</_></rects>
      <tilted>0</tilted></_>
    <_>
      <rects>
        <_>
          22 5 28 12 -1.</_>
        <_>
          22 5 14 12 2.</_></rects>
      <tilted>1</tilted></_>
    <_>
      <rects>
        <_>
          22 24 4 2 -1.</_>
        <_>
          23 24 2 2 2.</_></rects>
      <tilted>0</tilted></_>
    <_>
      <rects>
        <_>
          23 19 6 2 -1.</_>
        <_>
          23 19 3 1 2.</_>
        <_>
          26 20 3 1 2.</_></rects>
      <tilted>0</tilted></_>
    <_>
      <rects>
        <_>
          23 29 3 3 -1.</_>
        <_>
          24 30 1 1 9.</_></rects>
      <tilted>0</tilted></_>
    <_>
      <rects>
        <_>
          23 30 2 10 -1.</_>
        <_>
          23 35 2 5 2.</_></rects>
      <tilted>0</tilted></_>
    <_>
      <rects>
        <_>
          24 12 16 22 -1.</_>
        <_>
          24 12 16 11 2.</_></rects>
      <tilted>1</tilted></_>
    <_>
      <rects>
        <_>
          24 17 16 1 -1.</_>
        <_>
          28 17 8 1 2.</_></rects>
      <tilted>0</tilted></_>
    <_>
      <rects>
        <_>
          24 20 5 24 -1.</_>
        <_>
          18 26 5 12 2.</_></rects>
      <tilted>1</tilted></_>
    <_>
      <rects>
        <_>
          24 24 3 3 -1.</_>
        <_>
          25 25 1 1 9.</_></rects>
      <tilted>0</tilted></_>
    <_>
      <rects>
        <_>
          24 27 5 3 -1.</_>
        <_>
          24 28 5 1 3.</_></rects>
      <tilted>0</tilted></_>
    <_>
      <rects>
        <_>
          25 0 12 8 -1.</_>
        <_>
          28 0 6 8 2.</_></rects>
      <tilted>0</tilted></_>
    <_>
      <rects>
        <_>
          26 17 18 15 -1.</_>
        <_>
          32 17 6 15 3.</_></rects>
      <tilted>0</tilted></_>
    <_>
      <rects>
        <_>
          26 18 3 6 -1.</_>
        <_>
          26 18 3 3 2.</_></rects>
      <tilted>1</tilted></_>
    <_>
      <rects>
        <_>
          27 16 3 21 -1.</_>
        <_>
          27 23 3 7 3.</_></rects>
      <tilted>0</tilted></_>
    <_>
      <rects>
        <_>
          27 16 8 4 -1.</_>
        <_>
          27 17 8 2 2.</_></rects>
      <tilted>0</tilted></_>
    <_>
      <rects>
        <_>
          27 28 15 3 -1.</_>
        <_>
          32 28 5 3 3.</_></rects>
      <tilted>0</tilted></_>
    <_>
      <rects>
        <_>
          28 20 8 12 -1.</_>
        <_>
          28 24 8 4 3.</_></rects>
      <tilted>0</tilted></_>
    <_>
      <rects>
        <_>
          29 14 10 6 -1.</_>
        <_>
          29 17 10 3 2.</_></rects>
      <tilted>0</tilted></_>
    <_>
      <rects>
        <_>
          30 2 20 28 -1.</_>
        <_>
          30 2 10 28 2.</_></rects>
      <tilted>1</tilted></_>
    <_>
      <rects>
        <_>
          30 8 15 4 -1.</_>
        <_>
          29 9 15 2 2.</_></rects>
      <tilted>1</tilted></_>
    <_>
      <rects>
        <_>
          30 19 12 12 -1.</_>
        <_>
          33 19 6 12 2.</_></rects>
      <tilted>0</tilted></_>
    <_>
      <rects>
        <_>
          30 22 3 3 -1.</_>
        <_>
          31 22 1 3 3.</_></rects>
      <tilted>0</tilted></_>
    <_>
      <rects>
        <_>
          30 27 18 16 -1.</_>
        <_>
          30 27 9 8 2.</_>
        <_>
          39 35 9 8 2.</_></rects>
      <tilted>0</tilted></_>
    <_>
      <rects>
        <_>
          32 20 2 9 -1.</_>
        <_>
          33 20 1 9 2.</_></rects>
      <tilted>0</tilted></_>
    <_>
      <rects>
        <_>
          32 20 9 4 -1.</_>
        <_>
          35 20 3 4 3.</_></rects>
      <tilted>0</tilted></_>
    <_>
      <rects>
        <_>
          32 22 4 5 -1.</_>
        <_>
          34 22 2 5 2.</_></rects>
      <tilted>0</tilted></_>
    <_>
      <rects>
        <_>
          33 1 6 12 -1.</_>
        <_>
          36 1 3 12 2.</_></rects>
      <tilted>0</tilted></_>
    <_>
      <rects>
        <_>
          33 2 9 5 -1.</_>
        <_>
          36 5 3 5 3.</_></rects>
      <tilted>1</tilted></_>
    <_>
      <rects>
        <_>
          33 13 1 33 -1.</_>
        <_>
          33 24 1 11 3.</_></rects>
      <tilted>0</tilted></_>
    <_>
      <rects>
        <_>
          34 19 15 11 -1.</_>
        <_>
          39 24 5 11 3.</_></rects>
      <tilted>1</tilted></_>
    <_>
      <rects>
        <_>
          34 22 4 8 -1.</_>
        <_>
          35 23 2 8 2.</_></rects>
      <tilted>1</tilted></_>
    <_>
      <rects>
        <_>
          34 25 8 4 -1.</_>
        <_>
          36 25 4 4 2.</_></rects>
      <tilted>0</tilted></_>
    <_>
      <rects>
        <_>
          35 22 8 9 -1.</_>
        <_>
          39 22 4 9 2.</_></rects>
      <tilted>0</tilted></_>
    <_>
      <rects>
        <_>
          37 2 8 5 -1.</_>
        <_>
          37 2 4 5 2.</_></rects>
      <tilted>1</tilted></_>
    <_>
      <rects>
        <_>
          37 9 5 4 -1.</_>
        <_>
          37 11 5 2 2.</_></rects>
      <tilted>0</tilted></_>
    <_>
      <rects>
        <_>
          37 16 2 8 -1.</_>
        <_>
          37 16 1 4 2.</_>
        <_>
          38 20 1 4 2.</_></rects>
      <tilted>0</tilted></_>
    <_>
      <rects>
        <_>
          38 30 9 8 -1.</_>
        <_>
          38 34 9 4 2.</_></rects>
      <tilted>0</tilted></_>
    <_>
      <rects>
        <_>
          39 20 3 3 -1.</_>
        <_>
          38 21 3 1 3.</_></rects>
      <tilted>1</tilted></_>
    <_>
      <rects>
        <_>
          40 1 6 2 -1.</_>
        <_>
          43 1 3 2 2.</_></rects>
      <tilted>0</tilted></_>
    <_>
      <rects>
        <_>
          40 24 6 8 -1.</_>
        <_>
          42 26 2 8 3.</_></rects>
      <tilted>1</tilted></_>
    <_>
      <rects>
        <_>
          41 9 9 2 -1.</_>
        <_>
          44 12 3 2 3.</_></rects>
      <tilted>1</tilted></_>
    <_>
      <rects>
        <_>
          41 20 9 10 -1.</_>
        <_>
          44 23 3 10 3.</_></rects>
      <tilted>1</tilted></_>
    <_>
      <rects>
        <_>
          43 26 6 6 -1.</_>
        <_>
          43 28 6 2 3.</_></rects>
      <tilted>0</tilted></_>
    <_>
      <rects>
        <_>
          44 22 6 9 -1.</_>
        <_>
          46 25 2 3 9.</_></rects>
      <tilted>0</tilted></_>
    <_>
      <rects>
        <_>
          44 31 3 8 -1.</_>
        <_>
          42 33 3 4 2.</_></rects>
      <tilted>1</tilted></_>
    <_>
      <rects>
        <_>
          45 29 3 9 -1.</_>
        <_>
          42 32 3 3 3.</_></rects>
      <tilted>1</tilted></_>
    <_>
      <rects>
        <_>
          45 38 3 1 -1.</_>
        <_>
          46 38 1 1 3.</_></rects>
      <tilted>0</tilted></_>
    <_>
      <rects>
        <_>
          46 0 2 2 -1.</_>
        <_>
          46 1 2 1 2.</_></rects>
      <tilted>0</tilted></_>
    <_>
      <rects>
        <_>
          46 4 3 2 -1.</_>
        <_>
          46 5 3 1 2.</_></rects>
      <tilted>0</tilted></_>
    <_>
      <rects>
        <_>
          47 24 1 6 -1.</_>
        <_>
          47 27 1 3 2.</_></rects>
      <tilted>0</tilted></_>
    <_>
      <rects>
        <_>
          48 30 2 4 -1.</_>
        <_>
          48 30 2 2 2.</_></rects>
      <tilted>1</tilted></_></features></cascade>
</opencv_storage>
