<?xml version="1.0"?>
<opencv_storage>
<stage4>
  <maxWeakCount>5</maxWeakCount>
  <stageThreshold>-1.4563765376806259e-02</stageThreshold>
  <weakClassifiers>
    <_>
      <internalNodes>
        0 -1 88923 1985347314 1602221046 2013229936 2013134762 928380898
        2071410528 492306106 2004351930</internalNodes>
      <leafValues>
        -6.1516034603118896e-01 6.5640515089035034e-01</leafValues></_>
    <_>
      <internalNodes>
        0 -1 105888 1460852698 1360724235 1224788283 1896026440
        1605153787 981532828 1791359707 936272543</internalNodes>
      <leafValues>
        -7.4121016263961792e-01 4.7910669445991516e-01</leafValues></_>
    <_>
      <internalNodes>
        0 -1 69730 -375130130 681157226 91578656 -451992704 1493420267
        -1064265344 -646973013 1214632794</internalNodes>
      <leafValues>
        -7.3558676242828369e-01 4.4767373800277710e-01</leafValues></_>
    <_>
      <internalNodes>
        0 -1 124537 -145765888 -675081958 16845831 533026843 -1732138760
        -612335437 230852744 267108574</internalNodes>
      <leafValues>
        -7.7489680051803589e-01 4.3870526552200317e-01</leafValues></_>
    <_>
      <internalNodes>
        0 -1 114381 -238830662 824082830 2031163668 553731584 1355010832
        305270797 -560995673 -117703298</internalNodes>
      <leafValues>
        -7.1285361051559448e-01 4.5542773604393005e-01</leafValues></_></weakClassifiers></stage4>
</opencv_storage>
