<?xml version="1.0"?>
<opencv_storage>
<stage2>
  <maxWeakCount>4</maxWeakCount>
  <stageThreshold>-1.0425244569778442e+00</stageThreshold>
  <weakClassifiers>
    <_>
      <internalNodes>
        0 -1 69631 -285400342 -10539836 -529206286 -679478278 -270756136
        -203825216 -134219030 -3555586</internalNodes>
      <leafValues>
        -6.0939431190490723e-01 7.3664724826812744e-01</leafValues></_>
    <_>
      <internalNodes>
        0 -1 117785 1935144906 1945085156 16777218 386244622 1359213310
        1848215560 1901066474 1739584238</internalNodes>
      <leafValues>
        -6.4941841363906860e-01 6.1462247371673584e-01</leafValues></_>
    <_>
      <internalNodes>
        0 -1 106691 -4718593 363179176 147516488 -395600380 1494696078
        260 -1167388214 -270540801</internalNodes>
      <leafValues>
        -5.5099052190780640e-01 6.9315266609191895e-01</leafValues></_>
    <_>
      <internalNodes>
        0 -1 131418 -581576624 -2384033 143196553 -116403323 1932243080
        -1221091840 671330440 -1349535221</internalNodes>
      <leafValues>
        -5.7876282930374146e-01 6.6094601154327393e-01</leafValues></_></weakClassifiers></stage2>
</opencv_storage>
