<?xml version="1.0"?>
<opencv_storage>
<stage5>
  <maxWeakCount>5</maxWeakCount>
  <stageThreshold>-4.3636271357536316e-01</stageThreshold>
  <weakClassifiers>
    <_>
      <internalNodes>
        0 -1 53859 -269545632 2139045870 1663218608 -181176478 -62 -64
        -269485088 -3479632</internalNodes>
      <leafValues>
        -6.0312497615814209e-01 6.2427186965942383e-01</leafValues></_>
    <_>
      <internalNodes>
        0 -1 105080 -616579273 286880575 -96784589 1437678867 -278593
        -1925316673 -142657729 -12599361</internalNodes>
      <leafValues>
        -4.8052537441253662e-01 6.5361863374710083e-01</leafValues></_>
    <_>
      <internalNodes>
        0 -1 118651 -578305840 -184344024 -773795623 -6745336
        -1936133653 -1677052242 403343547 -1962204146</internalNodes>
      <leafValues>
        -4.9112823605537415e-01 6.7982643842697144e-01</leafValues></_>
    <_>
      <internalNodes>
        0 -1 94112 -203697293 573109040 -2063466480 2013449603 71316640
        78168240 1018445865 -1121</internalNodes>
      <leafValues>
        -5.9095418453216553e-01 5.3230434656143188e-01</leafValues></_>
    <_>
      <internalNodes>
        0 -1 131594 -208143241 2011165663 596249234 330007102
        -1666021158 939479039 957385402 -1151337238</internalNodes>
      <leafValues>
        -5.2193617820739746e-01 5.5841541290283203e-01</leafValues></_></weakClassifiers></stage5>
</opencv_storage>
