<?xml version="1.0"?>
<opencv_storage>
<stage7>
  <maxWeakCount>5</maxWeakCount>
  <stageThreshold>-4.7681123018264771e-01</stageThreshold>
  <weakClassifiers>
    <_>
      <internalNodes>
        0 -1 85024 -16779277 2130706423 686760706 1090467711 -211455050
        1410549060 2001974203 1590638367</internalNodes>
      <leafValues>
        -4.4343301653862000e-01 6.4267218112945557e-01</leafValues></_>
    <_>
      <internalNodes>
        0 -1 116141 -171966529 364723999 2147467065 808547763 -4211909
        -20971719 -1212172485 -4195525</internalNodes>
      <leafValues>
        -4.0812706947326660e-01 6.7897713184356689e-01</leafValues></_>
    <_>
      <internalNodes>
        0 -1 61851 1564439007 998490385 -1589374499 536925466 -401978740
        -399294091 -1466376294 134538443</internalNodes>
      <leafValues>
        -5.6745392084121704e-01 5.0517898797988892e-01</leafValues></_>
    <_>
      <internalNodes>
        0 -1 125077 1888022736 -1793469184 -2113666499 -1726353397
        -2126777176 -912209172 -2096199122 -1410753139</internalNodes>
      <leafValues>
        -5.5412274599075317e-01 4.9337506294250488e-01</leafValues></_>
    <_>
      <internalNodes>
        0 -1 70108 -1849428033 552583438 1480677120 -1436165812
        -1736351689 428950051 281141341 -287575175</internalNodes>
      <leafValues>
        -6.2380516529083252e-01 4.9350485205650330e-01</leafValues></_></weakClassifiers></stage7>
</opencv_storage>
