<?xml version="1.0"?>
<opencv_storage>
<stage8>
  <maxWeakCount>6</maxWeakCount>
  <stageThreshold>-1.1615638732910156e+00</stageThreshold>
  <weakClassifiers>
    <_>
      <internalNodes>
        0 -1 102340 1600634830 -1746927651 -536936483 -2097203
        2136458632 1465127328 2136996504 2145386204</internalNodes>
      <leafValues>
        -5.1734542846679688e-01 6.1021107435226440e-01</leafValues></_>
    <_>
      <internalNodes>
        0 -1 98929 1929187792 805696981 -573942404 -538619779 286350832
        -401056096 -326505476 -1157899635</internalNodes>
      <leafValues>
        -5.5754864215850830e-01 5.1237773895263672e-01</leafValues></_>
    <_>
      <internalNodes>
        0 -1 117669 1266095923 1099091 -1849574095 -150363765 -610481253
        -1931364130 -1400141142 -1460670845</internalNodes>
      <leafValues>
        -4.7728151082992554e-01 5.4637372493743896e-01</leafValues></_>
    <_>
      <internalNodes>
        0 -1 98323 -203432098 -641351593 -1529133438 -15493177 486991786
        67897856 1072378731 -543186005</internalNodes>
      <leafValues>
        -5.5991834402084351e-01 4.8403069376945496e-01</leafValues></_>
    <_>
      <internalNodes>
        0 -1 114184 2034739962 1342745242 361762824 1558556872
        2043394524 805458056 -1093950546 1576973514</internalNodes>
      <leafValues>
        -7.1391463279724121e-01 3.8080653548240662e-01</leafValues></_>
    <_>
      <internalNodes>
        0 -1 124882 -70264324 -1118252659 -1990901563 193134592
        -1877871924 -582973283 881004620 -1144598684</internalNodes>
      <leafValues>
        -5.5783307552337646e-01 5.2639734745025635e-01</leafValues></_></weakClassifiers></stage8>
</opencv_storage>
